<?xml version="1.0"?>
<opencv_storage>
<stage2>
  <maxWeakCount>8</maxWeakCount>
  <stageThreshold>-9.4922059774398804e-01</stageThreshold>
  <weakClassifiers>
    <_>
      <internalNodes>
        0 -1 2396840 1.0431748814880848e-02</internalNodes>
      <leafValues>
        -3.4243175387382507e-01 8.5138541460037231e-01</leafValues></_>
    <_>
      <internalNodes>
        0 -1 6222068 1.7129037529230118e-02</internalNodes>
      <leafValues>
        -3.1060457229614258e-01 7.9508054256439209e-01</leafValues></_>
    <_>
      <internalNodes>
        0 -1 5467450 4.0712629561312497e-04</internalNodes>
      <leafValues>
        -2.9358071088790894e-01 9.7165352106094360e-01</leafValues></_>
    <_>
      <internalNodes>
        0 -1 4079048 -8.0133148003369570e-04</internalNodes>
      <leafValues>
        6.3514846563339233e-01 -4.9989247322082520e-01</leafValues></_>
    <_>
      <internalNodes>
        0 -1 5134690 -1.7988225445151329e-02</internalNodes>
      <leafValues>
        6.4996314048767090e-01 -4.6733775734901428e-01</leafValues></_>
    <_>
      <internalNodes>
        0 -1 5464794 -7.3597184382379055e-04</internalNodes>
      <leafValues>
        6.5466618537902832e-01 -5.3771013021469116e-01</leafValues></_>
    <_>
      <internalNodes>
        0 -1 6615029 3.4532047808170319e-02</internalNodes>
      <leafValues>
        -3.3722141385078430e-01 7.8262948989868164e-01</leafValues></_>
    <_>
      <internalNodes>
        0 -1 6318561 -1.7202894669026136e-03</internalNodes>
      <leafValues>
        7.3387306928634644e-01 -3.6649671196937561e-01</leafValues></_></weakClassifiers></stage2>
</opencv_storage>
