<?xml version="1.0"?>
<opencv_storage>
<stage16>
  <maxWeakCount>9</maxWeakCount>
  <stageThreshold>-1.1815985441207886e+00</stageThreshold>
  <weakClassifiers>
    <_>
      <internalNodes>
        0 -1 4628099 -9.8001433070749044e-04</internalNodes>
      <leafValues>
        -6.8211919069290161e-01 4.6687209606170654e-01</leafValues></_>
    <_>
      <internalNodes>
        0 -1 5751325 2.3405072279274464e-03</internalNodes>
      <leafValues>
        -5.3582334518432617e-01 3.5968494415283203e-01</leafValues></_>
    <_>
      <internalNodes>
        0 -1 6530784 -5.0893491134047508e-03</internalNodes>
      <leafValues>
        5.7512277364730835e-01 -3.7197539210319519e-01</leafValues></_>
    <_>
      <internalNodes>
        0 -1 4915749 1.0380810126662254e-02</internalNodes>
      <leafValues>
        -3.7916350364685059e-01 6.6724634170532227e-01</leafValues></_>
    <_>
      <internalNodes>
        0 -1 3181013 1.6550511645618826e-05</internalNodes>
      <leafValues>
        -4.9805903434753418e-01 3.8211247324943542e-01</leafValues></_>
    <_>
      <internalNodes>
        0 -1 58527 2.6863450184464455e-03</internalNodes>
      <leafValues>
        2.7388849854469299e-01 -7.0080268383026123e-01</leafValues></_>
    <_>
      <internalNodes>
        0 -1 6084768 -9.5270592719316483e-03</internalNodes>
      <leafValues>
        5.0599151849746704e-01 -3.6601147055625916e-01</leafValues></_>
    <_>
      <internalNodes>
        0 -1 5570078 -4.7977536451071501e-04</internalNodes>
      <leafValues>
        6.5132683515548706e-01 -2.6886576414108276e-01</leafValues></_>
    <_>
      <internalNodes>
        0 -1 2593553 3.1825132668018341e-02</internalNodes>
      <leafValues>
        -3.2007172703742981e-01 6.1813461780548096e-01</leafValues></_></weakClassifiers></stage16>
</opencv_storage>
