<?xml version="1.0"?>
<opencv_storage>
<stage6>
  <maxWeakCount>7</maxWeakCount>
  <stageThreshold>-8.8963723182678223e-01</stageThreshold>
  <weakClassifiers>
    <_>
      <internalNodes>
        0 -1 3406097 -8.9364483952522278e-02</internalNodes>
      <leafValues>
        7.3221755027770996e-01 -4.6583852171897888e-01</leafValues></_>
    <_>
      <internalNodes>
        0 -1 3732318 2.1431149914860725e-02</internalNodes>
      <leafValues>
        -4.1563612222671509e-01 6.9622164964675903e-01</leafValues></_>
    <_>
      <internalNodes>
        0 -1 5137160 -1.1985183227807283e-03</internalNodes>
      <leafValues>
        7.4425798654556274e-01 -3.7180989980697632e-01</leafValues></_>
    <_>
      <internalNodes>
        0 -1 6423205 -4.4963032007217407e-02</internalNodes>
      <leafValues>
        6.4965981245040894e-01 -3.6152300238609314e-01</leafValues></_>
    <_>
      <internalNodes>
        0 -1 5462082 -4.6658696373924613e-04</internalNodes>
      <leafValues>
        6.6287922859191895e-01 -3.7917545437812805e-01</leafValues></_>
    <_>
      <internalNodes>
        0 -1 5426769 3.5744084743782878e-04</internalNodes>
      <leafValues>
        -2.8912180662155151e-01 7.7132213115692139e-01</leafValues></_>
    <_>
      <internalNodes>
        0 -1 423587 -2.3924852721393108e-03</internalNodes>
      <leafValues>
        -7.3581212759017944e-01 3.5141283273696899e-01</leafValues></_></weakClassifiers></stage6>
</opencv_storage>
