<?xml version="1.0"?>
<opencv_storage>
<stage13>
  <maxWeakCount>10</maxWeakCount>
  <stageThreshold>-1.2344558238983154e+00</stageThreshold>
  <weakClassifiers>
    <_>
      <internalNodes>
        0 -1 64580 5.7471403852105141e-04</internalNodes>
      <leafValues>
        4.3063583970069885e-01 -9.0740740299224854e-01</leafValues></_>
    <_>
      <internalNodes>
        0 -1 4781083 4.2914412915706635e-03</internalNodes>
      <leafValues>
        -4.2048737406730652e-01 5.5999004840850830e-01</leafValues></_>
    <_>
      <internalNodes>
        0 -1 7154816 1.2094721198081970e-02</internalNodes>
      <leafValues>
        -3.1019067764282227e-01 5.8193504810333252e-01</leafValues></_>
    <_>
      <internalNodes>
        0 -1 5464817 -4.4739717850461602e-04</internalNodes>
      <leafValues>
        5.3049582242965698e-01 -3.5649526119232178e-01</leafValues></_>
    <_>
      <internalNodes>
        0 -1 6229117 -7.7575305476784706e-03</internalNodes>
      <leafValues>
        5.5134570598602295e-01 -3.3935609459877014e-01</leafValues></_>
    <_>
      <internalNodes>
        0 -1 5837573 -3.9379179477691650e-02</internalNodes>
      <leafValues>
        8.3912080526351929e-01 -2.0921953022480011e-01</leafValues></_>
    <_>
      <internalNodes>
        0 -1 5360769 -1.4109613839536905e-03</internalNodes>
      <leafValues>
        6.9258832931518555e-01 -2.9845607280731201e-01</leafValues></_>
    <_>
      <internalNodes>
        0 -1 5369292 6.4991146326065063e-02</internalNodes>
      <leafValues>
        -2.2013919055461884e-01 7.1406865119934082e-01</leafValues></_>
    <_>
      <internalNodes>
        0 -1 3248862 5.8889649808406830e-03</internalNodes>
      <leafValues>
        3.0268713831901550e-01 -6.7810201644897461e-01</leafValues></_>
    <_>
      <internalNodes>
        0 -1 5777590 -3.6501786671578884e-03</internalNodes>
      <leafValues>
        6.4427900314331055e-01 -2.9659023880958557e-01</leafValues></_></weakClassifiers></stage13>
</opencv_storage>
